svm_type c_svc
kernel_type rbf
gamma 0.25
nr_class 2
total_sv 630
rho 2.62704
label 1 0
nr_sv 316 314
SV
1 1:-0.823781 2:-0.783405 3:-0.233795 4:0.361305 
1 1:-0.740805 2:-0.842831 3:-0.232668 4:0.347846 
1 1:-0.838324 2:-0.724825 3:0.412097 4:0.0563095 
1 1:-0.849309 2:-0.70294 3:-0.359031 4:-0.0476145 
1 1:-1 2:-0.688314 3:0.595954 4:0.416735 
1 1:-0.89062 2:-0.819471 3:0.773802 4:-0.78854 
1 1:-0.823566 2:-0.770287 3:-0.1668 4:0.227043 
1 1:-0.867871 2:-0.816313 3:0.609679 4:-0.00541841 
1 1:-0.860513 2:-0.813079 3:0.246757 4:0.28727 
1 1:-0.861462 2:-0.761569 3:0.464659 4:0.233725 
1 1:-0.800976 2:-0.791386 3:0.403009 4:0.821306 
1 1:-0.808973 2:-0.804622 3:-0.488412 4:0.475554 
1 1:-0.846383 2:-0.751589 3:0.308263 4:0.80203 
1 1:-0.867031 2:-0.827811 3:-0.243314 4:0.466283 
1 1:-0.852969 2:-0.925558 3:-0.533078 4:0.160777 
1 1:-0.854112 2:-0.741248 3:0.335311 4:0.121362 
1 1:-0.873281 2:-0.684933 3:0.172935 4:-0.287781 
1 1:-0.838571 2:-0.778928 3:-0.510622 4:0.712843 
1 1:-0.816805 2:-0.824174 3:-0.252739 4:0.166755 
1 1:-0.819897 2:-0.780529 3:0.312399 4:0.339151 
1 1:-0.838424 2:-0.734746 3:0.419911 4:0.648206 
1 1:-0.859482 2:-0.768263 3:-0.336034 4:0.195174 
1 1:-0.834923 2:-0.838921 3:0.388333 4:0.16749 
1 1:-0.847051 2:-0.774683 3:-0.170705 4:0.238072 
1 1:-0.837946 2:-0.752245 3:0.306952 4:0.473572 
1 1:-0.828656 2:-0.816341 3:0.303456 4:0.261345 
1 1:-0.85721 2:-0.789795 3:0.693636 4:-0.0103093 
1 1:-0.84888 2:-0.855729 3:-0.250165 4:0.468297 
1 1:-0.83456 2:-0.777394 3:-0.328603 4:0.16116 
1 1:-0.866144 2:-0.746436 3:0.520445 4:0.357372 
1 1:-0.889372 2:-0.504982 3:-0.284888 4:-0.694462 
1 1:-0.821881 2:-0.85418 3:-0.181866 4:0.745384 
1 1:-0.780979 2:-0.838036 3:-0.18829 4:0.191528 
1 1:-0.866236 2:-0.772201 3:0.31351 4:0.247342 
1 1:-0.85407 2:-0.710474 3:0.451211 4:0.112028 
1 1:-0.803067 2:-0.826495 3:0.374269 4:0.682282 
1 1:-0.84374 2:-0.853788 3:0.303812 4:0.385503 
1 1:-0.839238 2:-0.811282 3:-0.35 4:0.0363302 
1 1:-0.864838 2:-0.767225 3:0.209915 4:0.174491 
1 1:-0.857021 2:-0.718158 3:0.207169 4:-0.110109 
1 1:-0.864593 2:-0.794158 3:-0.327454 4:0.154735 
1 1:-0.866462 2:-0.773087 3:0.490453 4:-0.166819 
1 1:-0.850658 2:-0.808724 3:0.240994 4:0.00545037 
0.09615104582377362 1:-0.73739 2:-0.801384 3:-0.18078 4:0.233213 
1 1:-0.86073 2:-0.754758 3:0.485629 4:0.0129945 
1 1:-0.148608 2:-0.95534 3:0.517377 4:0.832207 
1 1:-0.852472 2:-0.886227 3:-0.139028 4:0.314664 
1 1:-0.854145 2:-0.690759 3:0.500114 4:0.0352113 
1 1:-0.789975 2:-0.789835 3:0.0996026 4:0.0397506 
1 1:-0.810968 2:-0.795824 3:0.429208 4:0.554895 
1 1:-0.849076 2:-0.807387 3:0.225653 4:0.286023 
1 1:-0.870513 2:-0.810125 3:0.692861 4:-0.0276353 
1 1:-0.808463 2:-0.766684 3:0.28037 4:0.372748 
1 1:-1 2:-0.59717 3:0.482769 4:-0.00704863 
1 1:-0.860905 2:-0.847396 3:0.407544 4:0.0877962 
1 1:-0.85837 2:-0.848751 3:0.56098 4:0.205083 
1 1:-0.867223 2:-0.764989 3:0.258549 4:0.659299 
1 1:-0.85428 2:-0.878335 3:0.881677 4:0.774187 
1 1:-0.828613 2:-0.879202 3:0.308711 4:0.0137298 
1 1:-0.857802 2:-0.810429 3:0.362712 4:0.223335 
1 1:-0.839057 2:-0.864319 3:-0.247271 4:0.159338 
1 1:-0.835395 2:-0.803571 3:-0.332481 4:0.736083 
1 1:-1 2:-0.669112 3:-0.275849 4:0.234972 
1 1:-0.815546 2:-0.818512 3:-0.215428 4:0.158219 
1 1:-0.866649 2:-0.694437 3:0.885869 4:0.996867 
1 1:-0.88859 2:-0.747054 3:-0.382835 4:-0.0593463 
1 1:-0.858805 2:-0.820107 3:0.311427 4:0.358108 
1 1:-0.890372 2:-0.774462 3:0.45221 4:-0.714409 
1 1:-0.855743 2:-0.794848 3:-0.257019 4:0.418173 
1 1:-0.872695 2:-0.710051 3:0.275446 4:-0.363574 
1 1:-0.844464 2:-0.778395 3:0.347698 4:0.391545 
0.9426343446138155 1:-0.891823 2:-0.323847 3:0.439485 4:-0.832047 
1 1:-0.887686 2:-0.834597 3:-0.169726 4:-0.643795 
1 1:-0.845341 2:-0.815239 3:-0.347901 4:0.239703 
1 1:-0.863849 2:-0.752225 3:-0.252192 4:0.00311673 
0.9757373507848247 1:-0.861543 2:-0.666276 3:0.54577 4:0.0484456 
1 1:-0.844437 2:-0.798644 3:-0.388581 4:0.130855 
1 1:-0.856508 2:-0.765738 3:0.407629 4:0.227651 
1 1:-1 2:-0.728659 3:0.627069 4:0.584688 
1 1:-1 2:-0.59282 3:0.553597 4:-0.221578 
1 1:-0.684498 2:-0.836944 3:-0.145671 4:0.161639 
1 1:-0.866797 2:-0.864681 3:0.429122 4:0.669943 
1 1:-0.857761 2:-0.766814 3:0.804692 4:0.993798 
1 1:-0.870253 2:-0.736456 3:0.563155 4:-0.0660593 
1 1:-0.857672 2:-0.783823 3:-0.195674 4:0.254311 
1 1:-0.823987 2:-0.785495 3:-0.176727 4:0.523344 
1 1:-0.855169 2:-0.757554 3:-0.345399 4:0.069384 
1 1:-0.837522 2:-0.935903 3:0.307203 4:0.406985 
1 1:-0.852096 2:-0.759025 3:-0.326554 4:0.827443 
1 1:-0.872649 2:-0.833148 3:0.58086 4:0.593894 
1 1:-0.886602 2:-0.788669 3:0.624082 4:-0.567458 
1 1:-0.86606 2:-0.756278 3:0.965348 4:-0.0611364 
1 1:-0.869905 2:-0.734713 3:-0.126254 4:0.0878928 
1 1:-0.863727 2:-0.867031 3:0.137984 4:-0.17529 
1 1:-0.843915 2:-0.806648 3:0.392855 4:0.0280508 
1 1:-0.83423 2:-0.827627 3:0.239862 4:0.49208 
1 1:-0.885427 2:-0.585959 3:0.299366 4:-0.532198 
1 1:-0.749655 2:-0.857761 3:0.541949 4:0.979126 
1 1:-0.857184 2:-0.924147 3:0.270948 4:0.590122 
1 1:-0.864757 2:-0.810968 3:0.376374 4:0.429777 
1 1:-0.848817 2:-0.835256 3:-0.23971 4:0.242036 
1 1:-0.862484 2:-0.881127 3:-0.0969174 4:0.0897469 
1 1:-0.866827 2:-0.71516 3:0.396745 4:0.180724 
1 1:-0.867977 2:-0.829565 3:0.369361 4:-0.116023 
1 1:-1 2:-0.737581 3:-0.128751 4:0.356989 
1 1:-1 2:-0.70495 3:0.455248 4:0.497131 
1 1:-0.839865 2:-0.756811 3:0.272085 4:0.0447694 
1 1:-0.807999 2:-0.905715 3:0.339652 4:0.12149 
1 1:-0.797946 2:-0.80812 3:-0.0577028 4:0.0472947 
1 1:-0.802505 2:-0.777332 3:0.287366 4:0.34401 
1 1:-0.828447 2:-0.914945 3:0.160196 4:0.000303685 
0.2200871421732112 1:-0.833944 2:-0.773243 3:-0.331751 4:0.670582 
1 1:-0.845163 2:-0.869847 3:0.359069 4:0.193734 
1 1:-0.859729 2:-0.759293 3:-0.626807 4:-0.0174698 
1 1:-0.86249 2:-0.744814 3:-0.587742 4:0.0166386 
1 1:-0.873617 2:-0.624591 3:0.673135 4:0.941214 
1 1:-0.874427 2:-0.722455 3:0.392793 4:0.095693 
1 1:-0.863715 2:-0.790937 3:0.416348 4:0.0409014 
1 1:-0.820906 2:-0.723407 3:-0.352121 4:0.00190201 
1 1:-0.818414 2:-0.818857 3:0.316476 4:0.228067 
1 1:-0.85593 2:-0.716564 3:0.379642 4:0.154479 
1 1:-0.86796 2:-0.733832 3:0.448067 4:0.653032 
1 1:-0.812803 2:-0.75542 3:0.3181 4:0.751394 
1 1:-0.847717 2:-0.784655 3:0.548825 4:0.783394 
1 1:-0.850813 2:-0.733124 3:0.916726 4:0.828722 
1 1:-0.889822 2:-0.784415 3:0.485646 4:-0.717829 
1 1:-0.892572 2:-0.768949 3:0.49125 4:0.704819 
1 1:-0.848496 2:-0.763584 3:-0.181315 4:0.21755 
1 1:-0.877353 2:-0.686431 3:-0.294284 4:-0.272117 
1 1:-0.848653 2:-0.77556 3:-0.0907517 4:0.149141 
1 1:-0.878505 2:-0.749735 3:0.60638 4:0.324415 
1 1:-0.820899 2:-0.740965 3:-0.212312 4:-0.0222969 
1 1:-0.914459 2:-0.688518 3:0.580585 4:0.648493 
1 1:-0.852671 2:-0.801656 3:-0.372596 4:0.109246 
1 1:-0.791436 2:-0.85921 3:0.163728 4:0.502533 
1 1:-0.738219 2:-0.768972 3:-0.334224 4:0.0194518 
1 1:-1 2:-0.596341 3:0.65301 4:0.787869 
1 1:-0.612937 2:-0.808504 3:0.515626 4:-0.246256 
1 1:-0.862416 2:-0.74299 3:-0.555213 4:-0.0427555 
1 1:-0.867214 2:-0.777423 3:-0.334985 4:0.335891 
1 1:-0.833099 2:-0.77806 3:0.331972 4:0.593671 
1 1:-0.883663 2:-0.693419 3:0.615649 4:0.0011668 
1 1:-1 2:-0.697305 3:-0.0941356 4:0.413186 
1 1:-0.868419 2:-0.716153 3:0.528644 4:0.12606 
1 1:-0.842888 2:-0.722011 3:-0.35738 4:-0.047167 
1 1:-0.894503 2:-0.64808 3:0.585249 4:-0.767282 
1 1:-0.85342 2:-0.779998 3:0.121825 4:0.409511 
1 1:-0.850789 2:-0.836596 3:0.519909 4:0.327388 
1 1:-0.845824 2:-0.760274 3:-0.437517 4:-0.0773436 
1 1:-0.814756 2:-0.821261 3:-0.163813 4:0.26793 
1 1:-0.798101 2:-0.694358 3:0.614489 4:0.854455 
1 1:-1 2:-0.681201 3:-0.351003 4:0.85762 
1 1:-0.872075 2:-0.796867 3:0.513738 4:0.773739 
1 1:-0.779055 2:-0.831692 3:-0.304448 4:0.351235 
1 1:-0.88837 2:-0.824783 3:0.605205 4:0.166819 
1 1:-0.885297 2:-0.776249 3:0.353132 4:-0.0789738 
1 1:-0.897526 2:-0.766073 3:0.389574 4:0.999136 
1 1:-0.82847 2:-0.775895 3:-0.228508 4:0.388732 
1 1:-0.85626 2:-0.743898 3:0.466199 4:-0.0758091 
1 1:-0.850338 2:-0.738673 3:0.387149 4:-0.0161273 
1 1:-0.876074 2:-0.740494 3:0.65037 4:0.303029 
1 1:-0.856648 2:-0.848088 3:0.223108 4:0.241941 
1 1:-0.822019 2:-0.808009 3:-0.263445 4:0.120978 
1 1:-0.865107 2:-0.799965 3:0.621853 4:-0.0187485 
1 1:-0.869962 2:-0.852819 3:0.362741 4:-0.232574 
1 1:-0.840794 2:-0.76443 3:0.264984 4:0.404715 
1 1:-0.819209 2:-0.710375 3:-0.291731 4:-0.0238952 
1 1:-0.873956 2:-0.785741 3:-0.443962 4:0.870727 
1 1:-0.830306 2:-0.74332 3:0.614724 4:0.692065 
1 1:-1 2:-0.670828 3:0.333829 4:0.679182 
1 1:-0.854478 2:-0.788777 3:0.221356 4:0.279597 
1 1:-0.826139 2:-0.759333 3:-0.478992 4:0.267035 
1 1:-0.83595 2:-0.827465 3:0.373554 4:0.214001 
1 1:-0.886046 2:-0.73316 3:0.341812 4:-0.363414 
1 1:-0.879762 2:-0.704269 3:0.755257 4:0.673395 
1 1:-0.840224 2:-0.801351 3:0.43972 4:0.00781591 
1 1:-0.865518 2:-0.789514 3:-0.62322 4:0.902022 
1 1:-0.798309 2:-0.764494 3:0.370185 4:0.350628 
1 1:-0.869217 2:-0.861554 3:0.527239 4:0.736978 
1 1:-0.884787 2:-0.610196 3:0.393846 4:-0.455382 
1 1:-0.856319 2:-0.856399 3:-0.115102 4:0.265979 
1 1:-0.854317 2:-0.746583 3:-0.498032 4:0.135779 
1 1:-1 2:-0.640134 3:0.325481 4:-0.0931671 
1 1:-0.877804 2:-0.751575 3:0.290241 4:-0.131463 
1 1:-0.793806 2:-0.780372 3:-0.231837 4:0.241588 
1 1:-0.840757 2:-0.8029 3:-0.186966 4:0.333301 
1 1:-0.888073 2:-0.597816 3:0.492323 4:-0.612787 
1 1:-0.842406 2:-0.76239 3:0.330296 4:0.26908 
1 1:-0.883664 2:-0.788848 3:0.623761 4:-0.110717 
1 1:-0.829235 2:-0.782115 3:0.181198 4:0.446944 
1 1:-0.850005 2:-0.765499 3:0.582989 4:0.893903 
1 1:-0.854975 2:-0.825625 3:0.209694 4:0.348261 
1 1:-0.852137 2:-0.769266 3:-0.200411 4:0.236666 
1 1:-0.876955 2:-0.761265 3:-0.333724 4:0.888021 
1 1:-0.864679 2:-0.729836 3:0.367752 4:-0.0187165 
1 1:-0.863117 2:-0.715981 3:-0.303563 4:0.101415 
1 1:-0.859801 2:-0.763131 3:-0.415546 4:0.280652 
1 1:-0.852584 2:-0.781072 3:0.210542 4:0.262879 
1 1:-0.848613 2:-0.801823 3:0.349083 4:0.600544 
1 1:-0.871257 2:-0.653986 3:0.208472 4:-0.228163 
1 1:-0.869032 2:-0.754625 3:0.24694 4:0.158028 
1 1:-0.85345 2:-0.776504 3:0.16739 4:0.703156 
1 1:-0.847905 2:-0.768504 3:0.365399 4:0.748166 
1 1:-0.831443 2:-0.757234 3:0.39653 4:0.955758 
1 1:-0.838586 2:-0.751729 3:0.303458 4:0.339503 
1 1:-0.82883 2:-0.742402 3:0.581368 4:0.703764 
1 1:-0.882989 2:-0.786885 3:0.472631 4:0.414337 
1 1:-0.851688 2:-0.772411 3:-0.224536 4:0.0445457 
1 1:-0.827234 2:-0.822409 3:0.495063 4:0.0361384 
1 1:-0.831832 2:-0.852203 3:-0.502746 4:0.518133 
1 1:-0.820395 2:-0.780164 3:0.27188 4:0.237177 
1 1:-0.867617 2:-0.798209 3:0.51652 4:0.28567 
1 1:-0.791519 2:-0.798245 3:-0.159603 4:0.677295 
1 1:-0.856914 2:-0.805318 3:0.217996 4:0.137665 
1 1:-0.887504 2:-0.705179 3:0.346134 4:-0.550196 
1 1:-0.82746 2:-0.838824 3:0.398827 4:0.752066 
1 1:-0.834697 2:-0.778126 3:0.234863 4:0.330329 
1 1:-0.855728 2:-0.697507 3:-0.0612085 4:-0.142556 
1 1:-0.833046 2:-0.732102 3:0.330276 4:0.834668 
1 1:-0.87931 2:-0.656976 3:0.786683 4:0.691201 
1 1:-0.855666 2:-0.814393 3:0.242311 4:0.232159 
1 1:-0.839334 2:-0.818865 3:-0.435329 4:0.793527 
1 1:-0.837689 2:-0.728665 3:0.437481 4:0.0774717 
1 1:-0.884005 2:-0.806771 3:0.379318 4:-0.466858 
1 1:-1 2:-0.634887 3:-0.497889 4:-0.110493 
1 1:-0.791431 2:-0.835867 3:-0.339705 4:0.4776 
1 1:-0.797091 2:-0.80393 3:-0.19644 4:0.293822 
1 1:-0.857928 2:-0.865683 3:0.328055 4:-0.344937 
1 1:-0.831355 2:-0.821015 3:0.519669 4:0.670774 
1 1:-0.819489 2:-0.805632 3:0.23774 4:0.328475 
1 1:-0.883473 2:-0.792443 3:0.317041 4:-0.143131 
1 1:-0.85561 2:-0.797702 3:0.432885 4:0.673748 
1 1:-0.841819 2:-0.712975 3:0.399669 4:0.104196 
1 1:-0.823217 2:-0.790857 3:0.202713 4:0.353664 
1 1:-0.797573 2:-0.826618 3:-0.238668 4:0.360473 
0.1511389344800655 1:-0.839414 2:-0.677167 3:0.681753 4:0.40561 
1 1:-0.834344 2:-0.773333 3:-0.262616 4:0.448957 
1 1:-0.844007 2:-0.795242 3:0.436993 4:0.394838 
1 1:-0.844201 2:-0.928982 3:0.382571 4:-0.0439702 
1 1:-0.84809 2:-0.786313 3:-0.304306 4:0.389946 
1 1:-0.851793 2:-0.799056 3:0.738912 4:-0.0280829 
1 1:-0.834139 2:-0.813271 3:0.129104 4:0.270039 
1 1:-0.833273 2:-0.863505 3:0.20976 4:0.230113 
0.5281508456900078 1:-0.481192 2:-0.869538 3:0.429207 4:0.628707 
1 1:-1 2:-0.674179 3:0.258895 4:0.344937 
1 1:-1 2:-0.639957 3:0.500012 4:0.550451 
1 1:-1 2:-0.642865 3:0.328409 4:0.161544 
1 1:-0.847752 2:-0.756169 3:0.165359 4:0.199552 
1 1:-0.859888 2:-0.749494 3:-0.490895 4:-0.064429 
1 1:-0.863147 2:-0.73396 3:0.272829 4:0.297275 
1 1:-0.869538 2:-0.792296 3:0.604927 4:0.397203 
1 1:-0.860137 2:-0.777168 3:0.303471 4:0.701079 
1 1:-0.837381 2:-0.837726 3:-0.183317 4:0.0655797 
1 1:-0.8174 2:-0.78484 3:-0.568336 4:0.440965 
1 1:-0.834493 2:-0.784423 3:-0.439823 4:-0.0178215 
1 1:-0.838577 2:-0.772621 3:0.160258 4:0.342316 
1 1:-0.820044 2:-0.753992 3:-0.417043 4:0.0680093 
1 1:-0.835853 2:-0.766876 3:0.44671 4:-0.0114921 
1 1:-0.834908 2:-0.834539 3:-0.197377 4:0.0622553 
1 1:-0.878013 2:-0.782773 3:-0.216006 4:0.0842162 
1 1:-1 2:-0.731859 3:0.537861 4:0.0253657 
1 1:-0.831292 2:-0.828801 3:0.459143 4:0.360601 
1 1:-0.889847 2:-0.636297 3:0.551657 4:-0.73426 
1 1:-0.834385 2:-0.871952 3:0.481324 4:0.178199 
1 1:-0.858895 2:-0.807394 3:0.47647 4:-0.0945097 
1 1:-0.857722 2:-0.767549 3:-0.242278 4:0.652681 
1 1:-1 2:-0.614857 3:0.483914 4:-0.0131862 
1 1:-0.865201 2:-0.782933 3:0.396799 4:-0.0278271 
1 1:-0.826649 2:-0.840154 3:0.298021 4:0.883833 
1 1:-0.88752 2:-0.700711 3:0.3909 4:0.212019 
1 1:-0.841661 2:-0.742504 3:0.341912 4:0.169248 
1 1:-0.838297 2:-0.771551 3:0.342988 4:0.208919 
1 1:-0.835516 2:-0.754916 3:0.5916 4:0.804683 
1 1:-0.842119 2:-0.803358 3:0.414972 4:0.00241352 
1 1:-0.810645 2:-0.794565 3:0.338506 4:0.150771 
1 1:-0.871014 2:-0.750482 3:0.32326 4:-0.161992 
1 1:-0.836674 2:-0.814568 3:-0.21098 4:0.0658994 
1 1:-0.823379 2:-0.765883 3:0.345992 4:0.0563414 
1 1:-0.799193 2:-0.794666 3:-0.258638 4:0.338032 
1 1:-0.879562 2:-0.686097 3:0.66767 4:0.643603 
1 1:-0.791927 2:-0.844194 3:-0.223872 4:0.427699 
1 1:-0.561625 2:-0.867616 3:0.213733 4:0.108384 
1 1:-0.866539 2:-0.803963 3:0.440705 4:-0.0159994 
1 1:-0.839286 2:-0.810203 3:0.377237 4:0.93955 
1 1:-0.872529 2:-0.818334 3:0.289372 4:0.0333253 
1 1:-0.867106 2:-0.813381 3:-0.517717 4:0.0466554 
1 1:-1 2:-0.699369 3:0.346043 4:0.813793 
1 1:-0.545378 2:-0.828 3:0.687751 4:0.65038 
1 1:-0.785289 2:-0.774535 3:0.328511 4:0.845729 
1 1:-0.845077 2:-0.911906 3:0.215964 4:-0.0989531 
1 1:-0.767042 2:-0.845003 3:0.159798 4:0.175098 
1 1:-0.856983 2:-0.836942 3:0.333554 4:0.405674 
1 1:-0.838599 2:-0.835116 3:-0.540453 4:0.0620954 
1 1:-0.840711 2:-0.80357 3:0.227532 4:0.172637 
1 1:-0.83017 2:-0.774363 3:-0.350748 4:0.213906 
1 1:-0.877346 2:-0.754347 3:0.559532 4:0.210837 
1 1:-0.858462 2:-0.813659 3:0.546938 4:0.766706 
1 1:-0.851292 2:-0.773112 3:0.555639 4:-0.00896666 
1 1:-0.867787 2:-0.770229 3:0.211344 4:0.0919209 
1 1:-0.85343 2:-0.837519 3:0.348976 4:0.114041 
1 1:-0.815661 2:-0.762531 3:0.271255 4:0.33263 
1 1:-0.834126 2:-0.771921 3:0.321838 4:0.0820747 
1 1:-0.850531 2:-0.70611 3:-0.357305 4:-0.0403581 
1 1:-0.862621 2:-0.742775 3:-0.520431 4:0.214417 
1 1:-0.80897 2:-0.917913 3:0.223721 4:0.610677 
1 1:-0.870198 2:-0.826131 3:0.185878 4:0.222409 
1 1:-0.849711 2:-0.795191 3:-0.195429 4:0.306481 
1 1:-0.820333 2:-0.700779 3:0.338856 4:-0.0497242 
1 1:-0.869231 2:-0.772981 3:0.22385 4:0.190505 
1 1:-0.757819 2:-0.844935 3:-0.167235 4:0.181843 
1 1:-0.871737 2:-0.744368 3:0.338835 4:0.121905 
1 1:-0.833811 2:-0.738461 3:0.399817 4:0.775018 
1 1:-0.850688 2:-0.82535 3:-0.389834 4:0.292065 
1 1:-0.782084 2:-0.752272 3:0.4085 4:0.216399 
1 1:-0.873771 2:-0.775473 3:-0.498015 4:-0.10167 
1 1:-0.835213 2:-0.849521 3:-0.215596 4:0.476193 
-1 1:-0.877408 2:-0.847179 3:0.733509 4:0.355551 
-1 1:-0.891581 2:-0.86894 3:0.431276 4:0.54962 
-1 1:-0.865268 2:-0.88153 3:0.257912 4:0.304979 
-1 1:-0.867294 2:-0.817928 3:0.510158 4:-0.0461441 
-1 1:-0.930133 2:-0.899533 3:0.260781 4:0.215024 
-1 1:-0.888582 2:-0.691676 3:0.577009 4:-0.665436 
-1 1:-0.86747 2:-0.854012 3:-0.478765 4:-0.142332 
-1 1:-0.872011 2:-0.800806 3:0.613222 4:0.61285 
-1 1:-0.814314 2:-0.8873 3:0.426857 4:0.370414 
-1 1:-0.854354 2:-0.885708 3:-0.490486 4:-0.074978 
-1 1:-0.905655 2:-0.825184 3:-0.408213 4:0.577399 
-1 1:-0.892613 2:-0.8793 3:0.346902 4:0.281931 
-1 1:-0.528205 2:-0.929929 3:0.229322 4:0.701782 
-1 1:-0.883213 2:-0.929283 3:0.378046 4:0.544091 
-1 1:-0.867622 2:-0.808742 3:0.418598 4:0.191369 
-1 1:-0.867216 2:-0.827924 3:0.165399 4:0.142172 
-1 1:-0.888644 2:-0.84072 3:0.539529 4:0.468392 
-1 1:-0.885932 2:-0.854426 3:-0.4272 4:0.583665 
-1 1:-0.862901 2:-0.881685 3:-0.194327 4:-0.0300328 
-1 1:-0.888723 2:-0.87805 3:0.59697 4:0.388956 
-1 1:-0.878465 2:-0.794412 3:-0.174964 4:-0.376616 
-1 1:-0.873643 2:-0.875484 3:0.271096 4:0.0875413 
-1 1:-0.461306 2:-0.909179 3:0.275847 4:0.455989 
-1 1:-0.92002 2:-0.837131 3:0.451882 4:-0.124718 
-1 1:-0.876935 2:-0.865483 3:-0.290275 4:-0.151347 
-1 1:-0.72545 2:-0.909377 3:0.549265 4:0.601503 
-1 1:-0.877421 2:-0.892539 3:0.258976 4:-0.0683609 
-1 1:-0.876545 2:-0.905615 3:0.41289 4:0.282026 
-1 1:-0.869017 2:-0.91044 3:0.206379 4:0.589643 
-1 1:-0.860562 2:-0.91669 3:-0.603227 4:0.0978985 
-1 1:-0.868489 2:-0.844052 3:0.328856 4:-0.133477 
-1 1:-0.671484 2:-0.848416 3:0.424911 4:0.449501 
-1 1:-0.849823 2:-0.835981 3:-0.43871 4:0.581299 
-1 1:-0.88538 2:-0.854671 3:0.426144 4:0.492752 
-1 1:-0.880438 2:-0.807707 3:-0.169441 4:-0.401518 
-1 1:-0.855917 2:-0.874268 3:0.40598 4:0.25348 
-1 1:-0.855424 2:-0.799845 3:-0.519876 4:-0.228546 
-1 1:-0.840838 2:-0.905125 3:-0.152456 4:0.0300328 
-1 1:-0.873085 2:-0.901285 3:-0.230964 4:0.0402941 
-1 1:-0.880056 2:-0.803553 3:0.214867 4:-0.402446 
-1 1:-0.845851 2:-0.852076 3:0.815294 4:0.660161 
-1 1:-0.945747 2:-0.859863 3:0.508149 4:0.352929 
-1 1:-0.183929 2:-0.923497 3:0.412871 4:0.570431 
-1 1:-0.877467 2:-0.780775 3:-0.360086 4:-0.103652 
-1 1:-0.789558 2:-0.92527 3:-0.310611 4:0.204795 
-1 1:-0.838943 2:-0.822173 3:-0.340714 4:0.221705 
-1 1:-0.914876 2:-0.858917 3:-0.0833562 4:-0.170782 
-1 1:-0.88227 2:-0.617704 3:-0.170088 4:-0.256773 
-1 1:-0.859697 2:-0.873467 3:0.448738 4:0.514297 
-1 1:-0.860658 2:-0.789037 3:0.598826 4:0.468169 
-1 1:-0.855802 2:-0.935969 3:0.185653 4:0.208471 
-1 1:-0.852749 2:-0.934125 3:0.261474 4:0.345194 
-1 1:-0.859894 2:-0.886998 3:0.680224 4:0.375465 
-1 1:-0.821821 2:-0.804008 3:0.557512 4:0.801838 
-1 1:-0.876987 2:-0.809714 3:-0.382558 4:-0.0803804 
-1 1:-0.883265 2:-0.786611 3:0.613821 4:0.161224 
-1 1:-0.877159 2:-0.910376 3:-0.411643 4:0.0263246 
-1 1:-0.883612 2:-0.930187 3:-0.769968 4:0.89566 
-1 1:-0.878031 2:-0.853655 3:-0.259764 4:0.145464 
-1 1:-0.445821 2:-0.891637 3:0.601573 4:0.458867 
-1 1:-0.826474 2:-0.882208 3:-0.142169 4:0.238775 
-1 1:-0.830163 2:-0.790552 3:-0.202057 4:0.509598 
-1 1:-0.31699 2:-0.908036 3:0.666389 4:0.577432 
-1 1:-1 2:-0.743952 3:0.2629 4:-0.184816 
-1 1:-0.868278 2:-0.865668 3:0.776032 4:0.684775 
-1 1:-0.62681 2:-0.943487 3:0.351387 4:0.76968 
-1 1:-0.896644 2:-0.81997 3:-0.284757 4:0.0521537 
-1 1:-0.88711 2:-0.884271 3:0.510991 4:0.0563095 
-1 1:-0.925682 2:-0.902886 3:0.329436 4:0.252745 
-1 1:-0.89457 2:-0.839143 3:0.624021 4:0.655206 
-1 1:-0.878693 2:-0.679917 3:-0.229072 4:0.495501 
-1 1:-0.860037 2:-0.807509 3:0.83024 4:0.52654 
-1 1:-0.869728 2:-0.890251 3:0.231646 4:0.209558 
-1 1:-0.86268 2:-0.912328 3:0.227492 4:0.343051 
-1 1:-0.866992 2:-0.799719 3:0.43 4:0.00324463 
-1 1:-0.374516 2:-0.898153 3:-0.186231 4:0.521106 
-1 1:-0.882519 2:-0.938551 3:-0.436651 4:0.536227 
-1 1:-0.871658 2:-0.84554 3:-0.329826 4:0.211924 
-1 1:-0.851823 2:-0.688802 3:0.556428 4:0.785599 
-1 1:-0.272207 2:-0.907632 3:0.306001 4:-0.710317 
-1 1:-0.897889 2:-0.628043 3:0.364608 4:-0.761176 
-1 1:-0.884592 2:-0.867065 3:0.543893 4:0.779814 
-1 1:-0.832701 2:-0.775502 3:0.439389 4:0.601854 
-1 1:-0.878256 2:-0.892749 3:0.350059 4:0.186638 
-1 1:-0.874755 2:-0.779767 3:-0.148618 4:-0.366035 
-1 1:-0.8831 2:-0.875618 3:-0.245462 4:0.143291 
-1 1:-0.877711 2:-0.722192 3:-0.204649 4:-0.364405 
-1 1:-0.85764 2:-0.875644 3:-0.257554 4:0.334484 
-1 1:-0.854482 2:-0.864504 3:0.406105 4:0.406665 
-1 1:-0.547317 2:-0.933426 3:0.812848 4:0.462127 
-1 1:-0.886945 2:-0.849035 3:0.396085 4:0.364757 
-1 1:-0.405293 2:-0.848518 3:0.44221 4:-0.510621 
-1 1:-0.86501 2:-0.927951 3:0.263012 4:0.230561 
-1 1:-0.878804 2:-0.846896 3:0.728083 4:0.71345 
-1 1:-0.86438 2:-0.819977 3:0.498638 4:0.123247 
-1 1:-0.850786 2:-0.885691 3:-0.167349 4:0.21675 
-1 1:-0.478905 2:-0.97575 3:0.756634 4:0.676208 
-1 1:-0.888026 2:-0.873213 3:0.308296 4:0.612786 
-1 1:-0.883527 2:-0.855906 3:0.296844 4:0.461968 
-1 1:-0.877125 2:-0.671173 3:0.307895 4:-0.281803 
-0.5807229264839601 1:-0.881001 2:-0.916192 3:-0.609468 4:0.0702464 
-1 1:-0.870804 2:-0.907555 3:-0.480692 4:0.631839 
-1 1:-0.495864 2:-0.908979 3:0.318315 4:-0.491793 
-1 1:-0.870581 2:-0.772684 3:0.249488 4:0.564293 
-1 1:-0.261996 2:-0.866512 3:0.289436 4:0.609047 
-1 1:-0.87369 2:-0.885804 3:0.294311 4:0.433581 
-1 1:-0.881825 2:-0.788483 3:0.344762 4:-0.420347 
-1 1:-0.847049 2:-0.868175 3:0.764809 4:0.45535 
-1 1:-0.877428 2:-0.85003 3:0.620114 4:0.595397 
-1 1:-0.881616 2:-0.717486 3:0.242381 4:-0.432206 
-1 1:-0.865058 2:-0.837907 3:-0.294697 4:-0.224742 
-1 1:-0.867568 2:-0.823681 3:0.461566 4:-0.0973228 
-1 1:-0.882278 2:-0.890146 3:0.316383 4:0.44966 
-1 1:-0.265233 2:-0.913258 3:-0.353006 4:-0.606138 
-1 1:-0.981229 2:-0.801177 3:0.432009 4:0.433325 
-1 1:-0.938257 2:-0.916185 3:-0.261854 4:0.297946 
-1 1:-0.992446 2:-0.555598 3:-0.2175 4:-0.457684 
-1 1:-0.971614 2:-0.850891 3:0.498787 4:0.501638 
-1 1:-0.98506 2:-0.815162 3:0.518856 4:0.465004 
-1 1:-0.929816 2:-0.849201 3:0.329482 4:0.150228 
-1 1:-0.992168 2:-0.786965 3:0.438536 4:0.439239 
-1 1:-0.9031 2:-0.870052 3:-0.329879 4:-0.0169584 
-1 1:-0.965009 2:-0.912333 3:-0.242323 4:0.635931 
-1 1:-0.910043 2:-0.892799 3:0.343458 4:0.614673 
-1 1:-0.956591 2:-0.863583 3:-0.340508 4:0.170942 
-1 1:-0.980994 2:-0.862312 3:0.259607 4:0.0753616 
-1 1:-0.99625 2:-0.678755 3:0.287857 4:-0.602653 
-1 1:-0.984588 2:-0.718196 3:0.442161 4:-0.318948 
-1 1:-0.907264 2:-0.918459 3:0.301141 4:0.517494 
-1 1:-0.988352 2:-0.842343 3:-0.213199 4:0.337617 
-1 1:-0.973058 2:-0.88465 3:-0.204589 4:0.228546 
-1 1:-0.990944 2:-0.652178 3:-0.244284 4:-0.412643 
-1 1:-0.990944 2:-0.652178 3:-0.244284 4:-0.412643 
-1 1:-0.901033 2:-0.923951 3:0.342022 4:0.561544 
-1 1:-0.901033 2:-0.923951 3:0.342022 4:0.561544 
-1 1:-0.985283 2:-0.86141 3:-0.24358 4:0.608408 
-1 1:-0.979136 2:-0.888192 3:0.32871 4:0.632926 
-1 1:-0.989604 2:-0.752474 3:0.313035 4:-0.360665 
-1 1:-0.907475 2:-0.893398 3:-0.23295 4:0.0242468 
-1 1:-0.998747 2:-0.883613 3:-0.313872 4:0.607096 
-1 1:-0.998747 2:-0.883613 3:-0.313872 4:0.607096 
-0.595143563578336 1:-0.956536 2:-0.922632 3:-0.444275 4:0.330872 
-1 1:-0.985807 2:-0.847398 3:-0.402637 4:0.13677 
-1 1:-0.97938 2:-0.857789 3:0.428838 4:0.848734 
-1 1:-0.907706 2:-0.884882 3:-0.395814 4:0.557261 
-1 1:-0.926948 2:-0.802072 3:0.574789 4:0.627492 
-1 1:-0.926948 2:-0.802072 3:0.574789 4:0.627492 
-1 1:-0.987504 2:-0.720747 3:-0.138461 4:-0.313194 
-1 1:-0.987504 2:-0.720747 3:-0.138461 4:-0.313194 
-1 1:-0.907692 2:-0.832651 3:0.470366 4:0.340142 
-1 1:-0.977088 2:-0.814882 3:0.251422 4:-0.22893 
-1 1:-0.989941 2:-0.768709 3:0.264388 4:-0.365428 
-1 1:-0.992102 2:-0.821497 3:0.509533 4:0.285127 
-1 1:-0.907692 2:-0.889895 3:-0.128103 4:0.117334 
-1 1:-0.954695 2:-0.897338 3:0.202783 4:0.731607 
-1 1:-0.971702 2:-0.842056 3:-0.324066 4:0.521873 
-1 1:-0.998458 2:-0.631199 3:0.400383 4:-0.720706 
-1 1:-0.953911 2:-0.843185 3:-0.244524 4:0.507105 
-1 1:-0.962498 2:-0.770308 3:0.320891 4:-0.0588029 
-1 1:-0.962498 2:-0.770308 3:0.320891 4:-0.0588029 
-1 1:-0.957576 2:-0.848111 3:0.219453 4:0.219371 
-1 1:-0.963925 2:-0.728062 3:0.453202 4:-0.112283 
-1 1:-0.991066 2:-0.716601 3:0.273272 4:-0.282474 
-1 1:-0.997219 2:-0.8379 3:0.498281 4:0.576568 
-1 1:-0.973322 2:-0.777616 3:0.340748 4:0.347943 
-1 1:-0.907793 2:-0.899089 3:0.310936 4:0.382978 
-1 1:-0.977634 2:-0.660102 3:-0.227978 4:0.268121 
-1 1:-0.988965 2:-0.738164 3:-0.170816 4:-0.341293 
-1 1:-0.989901 2:-0.832883 3:0.638316 4:0.49045 
-1 1:-0.925427 2:-0.839901 3:-0.426746 4:0.510174 
-1 1:-0.993126 2:-0.853114 3:0.351538 4:0.518038 
-1 1:-0.972499 2:-0.832438 3:0.358912 4:-0.100743 
-1 1:-0.971307 2:-0.85398 3:-0.182848 4:0.130888 
-1 1:-0.971307 2:-0.85398 3:-0.182848 4:0.130888 
-1 1:-0.993415 2:-0.716109 3:-0.0914469 4:-0.486774 
-1 1:-0.959414 2:-0.830339 3:0.432762 4:0.00471505 
-1 1:-0.983935 2:-0.558778 3:0.399322 4:0.123983 
-1 1:-0.958757 2:-0.823793 3:0.461375 4:0.775817 
-1 1:-0.958371 2:-0.872891 3:0.370315 4:0.190953 
-1 1:-0.991732 2:-0.745855 3:0.296007 4:-0.449149 
-1 1:-0.943809 2:-0.890502 3:-0.185449 4:0.0668905 
-1 1:-0.907692 2:-0.898314 3:0.242164 4:0.370862 
-1 1:-0.907692 2:-0.898314 3:0.242164 4:0.370862 
-1 1:-0.907691 2:-0.90976 3:0.414503 4:0.678702 
-1 1:-0.985796 2:-0.884937 3:-0.373413 4:0.195685 
-1 1:-0.899747 2:-0.8336 3:0.475201 4:0.0322065 
-1 1:-0.967669 2:-0.9075 3:-0.239006 4:0.432238 
-1 1:-0.907453 2:-0.870744 3:0.479502 4:0.323999 
-1 1:-0.979047 2:-0.74036 3:0.263169 4:0.500904 
-1 1:-0.973662 2:-0.865854 3:-0.0827733 4:0.154703 
-1 1:-0.907686 2:-0.827101 3:0.571626 4:0.602302 
-1 1:-0.907692 2:-0.862282 3:-0.300732 4:0.658627 
-1 1:-0.978723 2:-0.821415 3:0.612481 4:0.471207 
-1 1:-0.907691 2:-0.868492 3:-0.401616 4:0.550995 
-1 1:-0.907691 2:-0.868492 3:-0.401616 4:0.550995 
-1 1:-0.997114 2:-0.780791 3:0.616593 4:0.137505 
-1 1:-0.964562 2:-0.866671 3:-0.189153 4:0.426996 
-1 1:-0.95118 2:-0.815121 3:0.630694 4:0.62503 
-1 1:-0.953377 2:-0.867853 3:-0.483185 4:0.876161 
-1 1:-0.953377 2:-0.867853 3:-0.483185 4:0.876161 
-1 1:-0.970524 2:-0.788756 3:-0.0612538 4:-0.177975 
-1 1:-0.963057 2:-0.905117 3:-0.505627 4:0.547702 
-1 1:-0.988009 2:-0.773654 3:0.251226 4:-0.353888 
-1 1:-0.957091 2:-0.761859 3:0.195951 4:0.0882443 
-1 1:-0.947444 2:-0.892334 3:-0.602592 4:0.778694 
-1 1:-0.964922 2:-0.684127 3:0.232037 4:-0.41341 
-1 1:-0.974915 2:-0.830519 3:0.725564 4:0.616878 
-1 1:-0.974187 2:-0.786585 3:0.438922 4:-0.0729641 
-1 1:-0.994979 2:-0.873527 3:-0.0902557 4:0.223943 
-1 1:-0.906654 2:-0.885641 3:0.214482 4:0.0481899 
-1 1:-0.963934 2:-0.848744 3:0.54032 4:0.771598 
-1 1:-0.963934 2:-0.848744 3:0.54032 4:0.771598 
-1 1:-0.974862 2:-0.862886 3:-0.243519 4:0.0538159 
-1 1:-0.940412 2:-0.908051 3:0.309563 4:0.655909 
-1 1:-0.966193 2:-0.843665 3:-0.465427 4:-0.050939 
-1 1:-0.999214 2:-0.869445 3:0.294752 4:0.364118 
-1 1:-0.895746 2:-0.867399 3:0.473053 4:0.271126 
-1 1:-0.881838 2:-0.807782 3:0.344864 4:0.0208263 
-1 1:-0.907692 2:-0.840215 3:0.545097 4:0.830192 
-1 1:-0.972644 2:-0.812181 3:0.186923 4:0.123919 
-1 1:-0.990931 2:-0.724982 3:0.671558 4:0.727644 
-1 1:-0.907691 2:-0.867194 3:0.49982 4:0.437002 
-1 1:-0.963211 2:-0.824393 3:0.336471 4:0.401454 
-1 1:-0.963211 2:-0.824393 3:0.336471 4:0.401454 
-1 1:-0.985804 2:-0.909693 3:-0.422159 4:0.864493 
-1 1:-0.96715 2:-0.918839 3:-0.340143 4:0.42137 
-1 1:-0.892065 2:-0.831876 3:-0.199672 4:0.189259 
-1 1:-0.977151 2:-0.870215 3:0.460867 4:0.697211 
-1 1:-0.982872 2:-0.895707 3:-0.229431 4:0.395541 
-1 1:-0.976285 2:-0.85566 3:-0.319457 4:0.672053 
-1 1:-0.955969 2:-0.847769 3:-0.389799 4:0.566498 
-1 1:-0.907571 2:-0.762779 3:-0.346006 4:0.724287 
-1 1:-0.975058 2:-0.822054 3:0.333795 4:-0.125837 
-1 1:-0.969527 2:-0.733567 3:0.17069 4:-0.152082 
-1 1:-0.991636 2:-0.857557 3:-0.208938 4:0.300983 
-1 1:-0.991636 2:-0.857557 3:-0.208938 4:0.300983 
-1 1:-0.84979 2:-0.862318 3:0.818143 4:0.742571 
-1 1:-0.861256 2:-0.850884 3:0.480097 4:0.248142 
-1 1:-0.854033 2:-0.8129 3:0.67391 4:0.492816 
-1 1:-0.886208 2:-0.73282 3:-0.22729 4:-0.562247 
-1 1:-0.879091 2:-0.865054 3:0.386346 4:0.392792 
-1 1:-0.343667 2:-0.873342 3:0.722158 4:0.263326 
-1 1:-0.89041 2:-0.89604 3:-0.759789 4:0.631231 
-1 1:-0.885246 2:-0.930685 3:-0.385823 4:1 
-1 1:-0.882646 2:-0.79781 3:0.441908 4:0.678606 
-1 1:-0.878849 2:-0.797192 3:0.589146 4:-0.0886597 
-1 1:-0.881744 2:-0.922612 3:-0.414949 4:0.609494 
-1 1:-0.882762 2:-0.80962 3:0.519947 4:-0.371949 
-1 1:-0.865965 2:-0.912707 3:0.516229 4:0.248685 
-1 1:-0.887561 2:-0.880743 3:0.5516 4:0.484472 
-1 1:-0.84713 2:-0.873639 3:0.744726 4:0.761208 
-1 1:-0.864904 2:-0.839698 3:0.530762 4:0.409798 
-1 1:-0.869672 2:-0.875504 3:0.292405 4:0.327196 
-1 1:-0.89752 2:-0.93448 3:-0.641835 4:0.58277 
-1 1:-0.908743 2:-0.871908 3:0.197254 4:0.314825 
-1 1:-0.878548 2:-0.754101 3:0.175147 4:-0.382083 
-1 1:-0.875098 2:-0.87158 3:-0.11692 4:0.0329417 
-1 1:-0.871342 2:-0.831312 3:0.225258 4:-0.158475 
-1 1:-0.878565 2:-0.900382 3:0.220401 4:0.198114 
-1 1:-0.157596 2:-0.902361 3:0.371185 4:-0.489523 
-1 1:-0.85546 2:-0.859245 3:0.596152 4:0.512379 
-1 1:-0.87767 2:-0.776301 3:0.22397 4:-0.344713 
-1 1:-0.879888 2:-0.912795 3:-0.365437 4:0.540446 
-1 1:-0.859142 2:-0.811081 3:0.555642 4:0.164805 
-1 1:-0.86777 2:-0.887973 3:-0.511831 4:0.686374 
-1 1:-0.811634 2:-0.715846 3:0.23429 4:-0.532358 
-1 1:-0.852556 2:-0.891558 3:0.405746 4:-0.0875729 
-1 1:-0.87866 2:-0.850218 3:0.438881 4:0.0243107 
-1 1:-0.874373 2:-0.825048 3:0.608316 4:0.265884 
-1 1:-0.869608 2:-0.863313 3:0.455825 4:0.575578 
-1 1:-0.873074 2:-0.93098 3:-0.551053 4:0.216111 
-1 1:-0.871864 2:-0.825812 3:-0.19458 4:-0.28826 
-1 1:-0.876061 2:-0.863578 3:0.310109 4:0.372844 
-1 1:-0.900815 2:-0.858724 3:0.483668 4:0.0313434 
-1 1:-0.874863 2:-0.850092 3:0.455686 4:0.426101 
-1 1:-0.884531 2:-0.763706 3:0.111561 4:-0.534724 
-1 1:-0.88586 2:-0.72622 3:0.196821 4:-0.39634 
-1 1:-0.846267 2:-0.896599 3:-0.131383 4:0.0976425 
-1 1:-0.86022 2:-0.915349 3:0.454848 4:0.33327 
-1 1:-0.606212 2:-0.871138 3:0.654849 4:1 
-1 1:-0.864777 2:-0.862841 3:0.483746 4:-0.118293 
-1 1:-0.864683 2:-0.895827 3:0.502793 4:0.51906 
-1 1:-0.864959 2:-0.887863 3:-0.173919 4:-0.127755 
-1 1:-0.862091 2:-0.855249 3:0.345189 4:0.276464 
-1 1:-0.864279 2:-0.839983 3:0.34365 4:0.504099 
-1 1:-0.864058 2:-0.800133 3:0.257206 4:-0.196675 
-1 1:-0.883986 2:-0.659077 3:0.286307 4:-0.494766 
-1 1:-0.853023 2:-0.942121 3:0.223272 4:0.318852 
-1 1:-0.897142 2:-0.877601 3:0.401387 4:0.616143 
-0.7380331735034023 1:-0.886881 2:-0.732693 3:-0.239755 4:-0.58667 
-1 1:-0.87277 2:-0.90095 3:0.441932 4:0.245457 
-1 1:-0.865518 2:-0.710293 3:0.156064 4:-0.201982 
-1 1:-0.882875 2:-0.742932 3:0.530459 4:0.319364 
-1 1:-0.926437 2:-0.801215 3:0.386014 4:0.702709 
-1 1:-0.875504 2:-0.740112 3:-0.298596 4:-0.305075 
-1 1:-0.811074 2:-0.884298 3:0.489317 4:0.272372 
-1 1:-0.846241 2:-0.757644 3:0.551591 4:0.6499 
-1 1:-0.858192 2:-0.892269 3:0.481062 4:0.589004 
-1 1:-0.874984 2:-0.838426 3:0.348069 4:0.490034 
-1 1:-0.857499 2:-0.892873 3:0.248345 4:0.170847 
-1 1:-0.883142 2:-0.704434 3:-0.213502 4:-0.238744 
-1 1:-0.871618 2:-0.863486 3:0.583135 4:-0.104579 
-1 1:-0.786132 2:-0.860161 3:-0.490215 4:0.24958 
-1 1:-0.883844 2:-0.84416 3:0.649281 4:-0.0846959 
-1 1:-0.883471 2:-0.454331 3:-0.17233 4:-0.471174 
-1 1:-0.873073 2:-0.930128 3:-0.231373 4:0.20374 
-1 1:-0.843952 2:-0.81606 3:0.38379 4:0.596548 
-1 1:-0.871382 2:-0.780806 3:0.303087 4:-0.25428 
-1 1:-0.899197 2:-0.88965 3:0.578727 4:0.476225 
-1 1:-0.879199 2:-0.85506 3:0.235533 4:0.0230639 
-1 1:-0.879185 2:-0.756159 3:0.753475 4:0.687493 
-1 1:-0.879365 2:-0.872668 3:0.537581 4:0.523727 
-1 1:-0.83901 2:-0.851595 3:0.6643 4:0.36904 
-1 1:-0.849812 2:-0.907185 3:0.312231 4:0.0838333 
